{
    "feature_map": "z_featuremap",
    "ansatz": "layer",
    "learning_rate": 0.01,
    "num_layers": 5,
    "perm_mode": "random",
    "loss": "cross_entropy_loss",
    "circular": true,
    "num_qubits": 4,
    "name": "data_reuploading",
    "bias": 0.0,
    "loaded": false,
    "weights": [
        [
            [
                3.1995401705351103,
                -3.711009187256242,
                12.633159002618322
            ],
            [
                1.9409649078061166,
                -13.83349319637579,
                -0.24544779644626827
            ],
            [
                -0.623600229613846,
                5.344409989572313,
                -4.945757227744678
            ],
            [
                7.096489107635749,
                -0.08707459786249173,
                -13.314403044369348
            ],
            [
                -1.0972120791319717,
                -0.16629255479155308,
                3.6234797783151067
            ],
            [
                -3.79562375196658,
                -0.20316101641451567,
                -3.0088806624325994
            ],
            [
                -3.8471538463610564,
                -2.027144056008828,
                -1.1254446101091464
            ],
            [
                5.069390329310039,
                -11.050474144772446,
                -7.3842371875348825
            ]
        ],
        [
            [
                1.939287056776829,
                4.19879508869414,
                -3.20970971868288
            ],
            [
                -6.555321834778193,
                7.680776901012991,
                -3.413714461791973
            ],
            [
                -5.2634751256856775,
                4.893677580218911,
                -9.814211473586456
            ],
            [
                -8.777587872666194,
                -9.434374408372712,
                -0.02566201435482675
            ],
            [
                -5.639588025328453,
                -3.7853250373271896,
                -0.5739673886953375
            ],
            [
                -7.706724756507893,
                3.4351616852291635,
                8.711168811943812
            ],
            [
                2.972840920870367,
                11.304755260817641,
                -11.542878418066953
            ],
            [
                2.5524124394532683,
                3.3440062174982494,
                2.16766122495196
            ]
        ],
        [
            [
                12.147083019755936,
                -2.915961408578774,
                -5.089434613343279
            ],
            [
                -6.814221883682071,
                -1.4488456123515994,
                -6.51658327502812
            ],
            [
                -0.948345680580116,
                10.35270143467066,
                -2.4109737978807178
            ],
            [
                3.372661352423962,
                3.157366696139074,
                3.6227568916692072
            ],
            [
                8.667623335705418,
                -10.718292658865607,
                -7.190306175176173
            ],
            [
                2.289943104296873,
                -3.599976551065587,
                1.174050432188317
            ],
            [
                4.641694115054934,
                2.9509879324227626,
                5.667393240993122
            ],
            [
                -9.252250070329676,
                -12.305774340844097,
                4.662548077774674
            ]
        ],
        [
            [
                -6.012947862560142,
                -5.241412872839798,
                -10.443681940469432
            ],
            [
                -4.366136670160759,
                -13.13647336837259,
                -7.199837166650082
            ],
            [
                -6.139819656760949,
                3.042773502561948,
                -5.073975958030474
            ],
            [
                4.734216075489984,
                -1.3151557627297998,
                2.7051406076796853
            ],
            [
                -7.195606974134899,
                5.4855814091160875,
                -5.387871683280777
            ],
            [
                10.770028952317386,
                0.6617554966410377,
                7.278247925180187
            ],
            [
                9.904560309835524,
                -10.516086262910267,
                4.896889613976605
            ],
            [
                -4.009705755901536,
                0.7206634477246314,
                -12.727901989452562
            ]
        ],
        [
            [
                -7.819603909038323,
                -1.871519134318807,
                1.3097744229284285
            ],
            [
                -3.226351637424103,
                0.388694126075351,
                -0.6711683843946292
            ],
            [
                -9.362675546682386,
                -2.478845726982332,
                1.453575555382673
            ],
            [
                -7.15625167111112,
                5.37738631441399,
                -0.7876996479033902
            ],
            [
                -7.940459885257635,
                3.5863427020534098,
                7.671373023134404
            ],
            [
                3.539311657842943,
                0.7405633421192499,
                -12.187105207172168
            ],
            [
                0.6146070733061438,
                -0.10360303515103622,
                -6.775095823779402
            ],
            [
                -1.1298959330026406,
                -1.2761575139160855,
                2.775549753986902
            ]
        ]
    ]
}