{
    "feature_map": "z_featuremap",
    "ansatz": "layer",
    "learning_rate": 0.01,
    "num_layers": 5,
    "perm_mode": "random",
    "loss": "cross_entropy_loss",
    "circular": true,
    "num_qubits": 4,
    "name": "data_reuploading",
    "bias": 0.0,
    "loaded": false,
    "weights": [
        [
            [
                3.327104536105723,
                -3.516445484385496,
                12.633159002618322
            ],
            [
                2.3208521150690875,
                -13.65302062291555,
                -0.24544779644626827
            ],
            [
                -0.6208414589359454,
                5.680406395663007,
                -4.945757227744678
            ],
            [
                7.288045029831937,
                -0.5828093325579627,
                -13.314403044369348
            ],
            [
                -1.0972120791319717,
                -0.16629255479155308,
                3.6234797783151067
            ],
            [
                -3.79562375196658,
                -0.20316101641451567,
                -3.0088806624325994
            ],
            [
                -3.8471538463610564,
                -2.027144056008828,
                -1.1254446101091464
            ],
            [
                5.069390329310039,
                -11.050474144772446,
                -7.3842371875348825
            ]
        ],
        [
            [
                1.7432920351451797,
                4.260578719104696,
                -3.20970971868288
            ],
            [
                -6.90591940012447,
                8.010898190444873,
                -3.413714461791973
            ],
            [
                -5.5422280547239415,
                4.560477491592247,
                -9.814211473586456
            ],
            [
                -8.682216778849373,
                -9.155213771369736,
                -0.02566201435482675
            ],
            [
                -5.639588025328453,
                -3.7853250373271896,
                -0.5739673886953375
            ],
            [
                -7.706724756507893,
                3.4351616852291635,
                8.711168811943812
            ],
            [
                2.972840920870367,
                11.304755260817641,
                -11.542878418066953
            ],
            [
                2.5524124394532683,
                3.3440062174982494,
                2.16766122495196
            ]
        ],
        [
            [
                12.274379439475595,
                -2.9964299537409573,
                -5.089434613343279
            ],
            [
                -7.103015298029077,
                -1.327315645420324,
                -6.51658327502812
            ],
            [
                -0.6547151999250005,
                9.919385062645425,
                -2.4109737978807178
            ],
            [
                3.7294153942360024,
                3.304773056489838,
                3.6227568916692072
            ],
            [
                8.667623335705418,
                -10.718292658865607,
                -7.190306175176173
            ],
            [
                2.289943104296873,
                -3.599976551065587,
                1.174050432188317
            ],
            [
                4.641694115054934,
                2.9509879324227626,
                5.667393240993122
            ],
            [
                -9.252250070329676,
                -12.305774340844097,
                4.662548077774674
            ]
        ],
        [
            [
                -5.917190359596067,
                -5.567962864562133,
                -10.443681940469432
            ],
            [
                -3.933073373643658,
                -12.659207223210649,
                -7.199837166650082
            ],
            [
                -6.3870629914751,
                3.295176936297034,
                -5.073975958030474
            ],
            [
                4.566223908425481,
                -1.285916536393538,
                2.7051406076796853
            ],
            [
                -7.195606974134899,
                5.4855814091160875,
                -5.387871683280777
            ],
            [
                10.770028952317386,
                0.6617554966410377,
                7.278247925180187
            ],
            [
                9.904560309835524,
                -10.516086262910267,
                4.896889613976605
            ],
            [
                -4.009705755901536,
                0.7206634477246314,
                -12.727901989452562
            ]
        ],
        [
            [
                -7.9241028999527225,
                -1.8109170076192285,
                1.3097744229284285
            ],
            [
                -3.5809186594660005,
                0.3516191658785381,
                -0.6711683843946292
            ],
            [
                -9.295374689023072,
                -2.3870316219919965,
                1.453575555382673
            ],
            [
                -7.198169713566718,
                5.382000112411405,
                -0.7876996479033902
            ],
            [
                -7.940459885257635,
                3.5863427020534098,
                7.671373023134404
            ],
            [
                3.539311657842943,
                0.7405633421192499,
                -12.187105207172168
            ],
            [
                0.6146070733061438,
                -0.10360303515103622,
                -6.775095823779402
            ],
            [
                -1.1298959330026406,
                -1.2761575139160855,
                2.775549753986902
            ]
        ]
    ]
}