{
    "feature_map": "z_featuremap",
    "ansatz": "layer",
    "learning_rate": 0.01,
    "num_layers": 5,
    "perm_mode": "random",
    "loss": "cross_entropy_loss",
    "circular": true,
    "num_qubits": 4,
    "name": "data_reuploading",
    "bias": 0.0,
    "loaded": false,
    "weights": [
        [
            [
                -4.461516414774898,
                5.65793809242549,
                1.5464093657412392
            ],
            [
                4.723074126025371,
                10.050428657389615,
                -1.39176286222278
            ],
            [
                -0.8657943087414111,
                -8.294024985914975,
                1.0932323635230967
            ],
            [
                -3.544471364668024,
                -8.119360400463323,
                -4.473690866149462
            ],
            [
                -1.5548899962979617,
                2.7668179735288008,
                15.056516505321909
            ],
            [
                -5.157550160581001,
                -6.332818298697159,
                -6.19757408466209
            ],
            [
                2.226819157881459,
                -6.036213347045067,
                8.068567390549488
            ],
            [
                -5.223541514215415,
                7.968526922338763,
                -0.18322754497566368
            ]
        ],
        [
            [
                -2.637207699506656,
                6.85429412607903,
                2.602940855383365
            ],
            [
                4.3428089890638315,
                5.741682017776357,
                -4.171030534625281
            ],
            [
                -3.635276489781832,
                9.608609934019773,
                0.05658096987391308
            ],
            [
                -6.200268493421055,
                -4.848174751269875,
                -0.8670883697635325
            ],
            [
                6.135739550891931,
                -5.331450195687333,
                -10.877612001901651
            ],
            [
                -3.500091688504017,
                -7.997027032877518,
                0.8906705658911153
            ],
            [
                -1.7851372583529403,
                -0.5016616427780423,
                -4.174531787725256
            ],
            [
                17.277388920408704,
                -6.730534948684102,
                1.020741824485571
            ]
        ],
        [
            [
                -4.5731394101600795,
                4.146287567685035,
                -2.2815699391350583
            ],
            [
                -1.4054723704460381,
                4.496808806667256,
                -0.13467384769648227
            ],
            [
                -12.74108360659289,
                -1.3061022436137326,
                8.597442445641892
            ],
            [
                -11.455474416653294,
                8.360035864743129,
                5.808532001349095
            ],
            [
                -7.440948433169737,
                -4.3117413399888616,
                -1.648354925661779
            ],
            [
                6.5534701259938,
                2.7266298964417577,
                -1.6388698251593126
            ],
            [
                3.695045231499943,
                -1.174854512458875,
                7.240398465765077
            ],
            [
                -2.34061772020348,
                3.6824542473024238,
                3.216730642310787
            ]
        ],
        [
            [
                -5.585191852240903,
                -9.745432924149721,
                5.799486618108553
            ],
            [
                -2.986557913696496,
                2.971633169245622,
                -7.136916263409798
            ],
            [
                -4.63165907318662,
                -7.741935475170298,
                -12.80889278283339
            ],
            [
                -2.7215265269873794,
                -6.17742029524207,
                0.716709598516634
            ],
            [
                -5.107163506353475,
                1.5461878199918822,
                -7.530580956965977
            ],
            [
                4.5085479162671,
                -6.849568524494949,
                -2.7197160259488533
            ],
            [
                -1.0191283973102103,
                -5.347776037637323,
                9.131547947050768
            ],
            [
                3.6318914587558115,
                1.562121843244914,
                7.606883470798867
            ]
        ],
        [
            [
                1.42655844706504,
                7.672331543485727,
                1.702000227139013
            ],
            [
                2.3378143843113195,
                -0.7558721775954707,
                4.492205882257841
            ],
            [
                -0.24281932227714198,
                4.417220269154634,
                6.429550900586629
            ],
            [
                7.764840270311483,
                -7.995739570518897,
                5.055949149195765
            ],
            [
                -3.971846112282798,
                -4.645436385618142,
                -3.2992440362986755
            ],
            [
                -2.543046168950898,
                -3.2011028416947775,
                -0.4834980353408857
            ],
            [
                -7.451714802528555,
                14.068658413943732,
                -6.009504672833542
            ],
            [
                3.3820513362464744,
                6.863122748659465,
                0.95853289303322
            ]
        ]
    ]
}