{
    "feature_map": "z_featuremap",
    "ansatz": "layer",
    "learning_rate": 0.02,
    "num_layers": 5,
    "perm_mode": "random",
    "loss": "cross_entropy_loss",
    "circular": true,
    "num_qubits": 4,
    "name": "layers=5,lr=0.02,no_datareup",
    "bias": 0.0,
    "loaded": false,
    "weights": [
        [
            [
                -6.045880311866931,
                -3.270708865336771,
                -6.474827509288867
            ],
            [
                -0.2271319447850814,
                2.354467893252094,
                0.17770770871787142
            ],
            [
                8.873801881118276,
                3.5811864336980537,
                -4.016806442398442
            ],
            [
                6.984098657673172,
                -4.574861161747495,
                6.464552905209331
            ],
            [
                -3.464725440374984,
                -2.5335030677160937,
                5.961085265225473
            ],
            [
                1.2955782293377092,
                4.100490638375184,
                5.520028389636493
            ],
            [
                3.8302952269067663,
                -3.4889993836384052,
                -1.574270072134787
            ],
            [
                0.149354517713864,
                7.738621658858185,
                -3.6926853706046487
            ]
        ],
        [
            [
                10.350828364126176,
                -6.088325828000262,
                4.060805447605422
            ],
            [
                0.41923075025201795,
                -9.822792093983773,
                3.578756780014321
            ],
            [
                2.9827214523801167,
                -3.1444524508145766,
                1.7153319933868654
            ],
            [
                11.422626007907184,
                -7.142617826535593,
                -6.295675467637508
            ],
            [
                -8.59507785746895,
                11.442457589221108,
                -1.9486231214829115
            ],
            [
                2.5197948307759743,
                2.955637371506789,
                1.8513198908642343
            ],
            [
                -17.476931460575578,
                -8.12174185272483,
                10.438992037316522
            ],
            [
                0.15840204060563703,
                6.466845095948499,
                -4.7687916820621865
            ]
        ],
        [
            [
                4.196183223541719,
                4.04088644567906,
                -7.889636848406684
            ],
            [
                -0.26906754732920496,
                0.5258004263827679,
                2.0482657745437423
            ],
            [
                -2.058699741887302,
                11.828259550166829,
                1.684152460782622
            ],
            [
                -2.2908512216446564,
                10.020936661281478,
                -0.6039138561975866
            ],
            [
                0.9433367705574041,
                9.362129700290506,
                -0.9267246396747738
            ],
            [
                1.1717697188419287,
                8.826743402695158,
                2.3805029118363974
            ],
            [
                -8.198386404575258,
                7.155636583371009,
                2.8427318327534077
            ],
            [
                -6.011569221381554,
                -14.417321842346656,
                -4.299812115523955
            ]
        ],
        [
            [
                -6.60302613313409,
                0.9086553521548383,
                1.8377386435786671
            ],
            [
                3.4201524209555267,
                5.942350707653072,
                4.722869177098921
            ],
            [
                4.068583175285321,
                4.931416286701531,
                -5.064459523391896
            ],
            [
                -2.5755953532974916,
                -13.08822451498833,
                2.993096645923766
            ],
            [
                -2.4115740214148196,
                7.2008055116651475,
                2.487620516879749
            ],
            [
                -7.871750379805086,
                -0.026724833096248707,
                -14.404659979749406
            ],
            [
                -7.187473642955354,
                0.3504301642556784,
                6.258135895445528
            ],
            [
                9.610231383527223,
                3.518145361942248,
                0.7889810463555336
            ]
        ],
        [
            [
                -10.064221477938254,
                6.998897639024993,
                -5.643151011494549
            ],
            [
                0.7559848051255537,
                -7.960763739383437,
                11.221484061006008
            ],
            [
                2.07230376734576,
                2.2600854244264355,
                -5.090330700504834
            ],
            [
                -5.749550074986122,
                5.497152857215024,
                4.259728345466953
            ],
            [
                -2.194447585492381,
                2.28173744505256,
                0.8385102877546698
            ],
            [
                0.4098219819480115,
                -0.6192848457249385,
                -6.351132351391304
            ],
            [
                -0.3207394827493943,
                -1.83131835361872,
                -7.1944942707424815
            ],
            [
                4.312650293519578,
                -0.07634566847000915,
                -3.8067212697173938
            ]
        ]
    ]
}