{
    "feature_map": "z_featuremap",
    "ansatz": "layer",
    "learning_rate": 0.02,
    "num_layers": 3,
    "perm_mode": "random",
    "loss": "cross_entropy_loss",
    "circular": true,
    "num_qubits": 4,
    "name": "layers=5,lr=0.02,no_datareup",
    "bias": 0.0,
    "loaded": false,
    "weights": [
        [
            [
                -13.787753434666891,
                2.1772256413496742,
                1.54409217171528
            ],
            [
                0.2203701782001705,
                8.360201596874157,
                0.8566980658476974
            ],
            [
                6.036456223861166,
                -3.8710862386568343,
                6.66287156308603
            ],
            [
                -7.169981997237686,
                0.09274229913184957,
                -1.6160018913797303
            ],
            [
                0.020005635737330472,
                0.8970724532801777,
                -11.262223874544201
            ],
            [
                3.333612595786402,
                2.1287140692733155,
                -10.652404225975786
            ],
            [
                13.013741168506604,
                16.95579641596162,
                -0.25355904963211773
            ],
            [
                16.381488109939237,
                0.5775924599802681,
                -13.030175950801002
            ]
        ],
        [
            [
                5.740765010155323,
                -2.2415281559946925,
                5.264365895407384
            ],
            [
                -9.27847778106303,
                0.6156548382589214,
                -3.4417129958519572
            ],
            [
                5.046056763520465,
                -4.918325732122459,
                -2.6773188837804196
            ],
            [
                6.41588558838389,
                -5.475536875567143,
                4.365212472489943
            ],
            [
                -7.4601310686178595,
                4.2287551083940595,
                3.9484379660212476
            ],
            [
                8.57043668420089,
                8.801702946749433,
                1.3779258701891495
            ],
            [
                -10.48599726863906,
                9.008720758412887,
                -8.332398877184076
            ],
            [
                -14.547005033294207,
                4.296088850468138,
                2.6476985167410056
            ]
        ],
        [
            [
                11.077768945535615,
                -2.1612447037583986,
                2.183637817026088
            ],
            [
                -3.242875247484955,
                4.338420105317317,
                -1.8149027462602978
            ],
            [
                -6.5363872100202425,
                -10.759005430351447,
                -7.217795466834361
            ],
            [
                -4.1157280432768895,
                6.027100611311897,
                -4.691462571741111
            ],
            [
                -2.8966031554079357,
                -0.17219787764588848,
                -3.6943629491034002
            ],
            [
                5.4157714209201195,
                5.680720097557808,
                -0.1002775185752335
            ],
            [
                -3.232412184524141,
                3.0770472583324815,
                3.0202515172287394
            ],
            [
                -2.469197872981885,
                -3.697099434935064,
                4.9362784665008075
            ]
        ]
    ]
}