{
    "feature_map": "z_featuremap",
    "ansatz": "layer",
    "learning_rate": 0.01,
    "num_layers": 4,
    "perm_mode": "random",
    "loss": "cross_entropy_loss",
    "circular": true,
    "num_qubits": 4,
    "name": "data_reuploading",
    "bias": 0.0,
    "loaded": false,
    "weights": [
        [
            [
                8.14081173351159,
                -3.5825378372367216,
                -9.488497792990612
            ],
            [
                -4.259811670656959,
                -4.181526060126557,
                6.830838909263185
            ],
            [
                -2.804355635839541,
                -2.940744864420897,
                -0.07105043644775817
            ],
            [
                -5.207586463221826,
                -8.048337565928751,
                -12.206593263799924
            ],
            [
                -1.012611988470981,
                0.36655406201374624,
                -4.421528015825804
            ],
            [
                -5.393767804457146,
                4.5129129279323825,
                -13.413348521246597
            ],
            [
                11.064327862560345,
                3.608380864002314,
                1.4039012405087794
            ],
            [
                -2.926808635451385,
                4.894369591759037,
                8.804126673349677
            ]
        ],
        [
            [
                8.634239714547908,
                -5.4038794211314585,
                -9.896156198708592
            ],
            [
                13.513780885402937,
                -1.3397360823935371,
                4.968163870182418
            ],
            [
                -1.66957610639397,
                4.722903800940215,
                10.126562767722756
            ],
            [
                6.428689679970061,
                -3.43657761043188,
                0.045131926091102795
            ],
            [
                3.6217787582307843,
                -2.5849658593751186,
                10.371186497729035
            ],
            [
                -3.7066853741766885,
                3.4713068803420795,
                -7.6583503430701665
            ],
            [
                -3.8968326123524886,
                -6.169074272796041,
                -5.879537498182188
            ],
            [
                -4.321490091682025,
                11.03753283671766,
                3.542927347984751
            ]
        ],
        [
            [
                -8.920631323464182,
                1.1564503482230193,
                7.122945824375829
            ],
            [
                -7.831945075787005,
                4.708276240981636,
                -0.5091867058852361
            ],
            [
                3.3666528540413374,
                0.05811879812922846,
                1.331539724300646
            ],
            [
                -3.5671536344695487,
                3.089099652821251,
                0.45523424723392963
            ],
            [
                -0.3968200560209471,
                -7.639638164088118,
                -10.112600871976763
            ],
            [
                7.8067732301247315,
                8.658734632811244,
                -0.6324515914235002
            ],
            [
                -2.4995964196557017,
                -0.5749573322045634,
                0.9310255691812314
            ],
            [
                0.0128018861379352,
                1.0717213739288562,
                1.9618700562620928
            ]
        ],
        [
            [
                -4.986097878582552,
                -1.7127043800248858,
                8.227966792469315
            ],
            [
                5.239049340647024,
                -6.266773127736188,
                7.3974184667676735
            ],
            [
                17.07828759176896,
                3.1072921780358436,
                5.238031503791678
            ],
            [
                7.574876916551061,
                3.916193815676887,
                -4.120356293522965
            ],
            [
                7.034694288331959,
                -1.858033282696298,
                0.0045822208024173935
            ],
            [
                0.04940174845391561,
                -7.419243782525272,
                -13.295870263705368
            ],
            [
                1.84368099581975,
                -0.4723477803869444,
                -7.5735978082541315
            ],
            [
                0.7076298492127173,
                -0.7176122910508932,
                3.2153085833515886
            ]
        ]
    ]
}