{
    "feature_map": "z_featuremap",
    "ansatz": "layer",
    "learning_rate": 0.02,
    "num_layers": 3,
    "perm_mode": "random",
    "loss": "cross_entropy_loss",
    "circular": true,
    "num_qubits": 4,
    "name": "layers=5,lr=0.02,no_datareup",
    "bias": 0.0,
    "loaded": false,
    "weights": [
        [
            [
                -0.7732964185406506,
                -13.759830077451978,
                -7.605329762224292
            ],
            [
                9.70400343754899,
                9.912302113282562,
                -12.842180762004737
            ],
            [
                1.7710577818238296,
                10.936643120932619,
                -2.0935754099395134
            ],
            [
                4.2516745837404075,
                -9.685280492038991,
                2.155356964512197
            ],
            [
                -3.595095740876758,
                -1.8891970855770688,
                3.849353928607122
            ],
            [
                8.993166423018305,
                5.263700870023496,
                -6.138124941350925
            ],
            [
                0.5088321326652714,
                -1.9292351129296341,
                -3.0942794074994247
            ],
            [
                0.6555754418525435,
                8.384429420492483,
                -3.0589814639813455
            ]
        ],
        [
            [
                -2.1794740139105633,
                -3.8501108984955668,
                1.1516328582873672
            ],
            [
                -2.6972565612921464,
                0.17088090483058133,
                9.198636929076995
            ],
            [
                9.809056541654414,
                -1.6427402224924026,
                1.781643441521737
            ],
            [
                1.2756270483791299,
                5.0837719593143404,
                -0.9904561118417351
            ],
            [
                5.451730856742543,
                -4.35836475267528,
                1.013010108326731
            ],
            [
                -1.010786770226189,
                6.005123625594171,
                2.772996774218774
            ],
            [
                2.788191665327542,
                -5.1224818975229605,
                3.9035857701711656
            ],
            [
                1.7275796953280815,
                11.189428183831351,
                1.6313632177008297
            ]
        ],
        [
            [
                -2.1991806054984187,
                3.156426527118137,
                -7.3273067518605925
            ],
            [
                2.3813379653215314,
                -1.1171771689744772,
                -4.247844721000464
            ],
            [
                -2.9904901814112734,
                -13.380390567357079,
                -2.23747769438791
            ],
            [
                4.661963578316479,
                0.826395915449873,
                2.9226635047205307
            ],
            [
                -2.601951816654217,
                2.180881238566844,
                0.7166859896351077
            ],
            [
                5.802317034455688,
                0.1818011200562954,
                -12.383334573927408
            ],
            [
                5.859867588290557,
                1.0422485207479704,
                -8.957382953193537
            ],
            [
                -6.883528616598686,
                1.4713309377024086,
                -1.5994216000674066
            ]
        ]
    ]
}