{
    "feature_map": "z_featuremap",
    "ansatz": "layer",
    "learning_rate": 0.01,
    "num_layers": 4,
    "perm_mode": "random",
    "loss": "cross_entropy_loss",
    "circular": true,
    "num_qubits": 4,
    "name": "data_reuploading",
    "bias": 0.0,
    "loaded": false,
    "weights": [
        [
            [
                -1.9107612125014437,
                -0.03505492159870874,
                4.2807181924966775
            ],
            [
                0.05788334059302794,
                4.297675358004075,
                3.2380479925744696
            ],
            [
                3.9600207652253943,
                -3.8190810101692176,
                -14.557102826157262
            ],
            [
                3.7179872759455206,
                4.229021939283353,
                2.8054275599753273
            ],
            [
                2.8374053100569143,
                -0.8244023860075503,
                -11.393381987939724
            ],
            [
                -8.34090246471613,
                -4.399515477910693,
                -3.521779007786883
            ],
            [
                -8.954339358389678,
                2.2347451943372194,
                -9.445243978117782
            ],
            [
                -8.028874719362474,
                -1.7971663063313807,
                -7.093484168479836
            ]
        ],
        [
            [
                -5.072937177320871,
                -3.8772067472390503,
                4.072084776014659
            ],
            [
                -1.7762824708735268,
                -5.488473917865679,
                -1.4285960085658476
            ],
            [
                12.164384560347774,
                3.7628029933637075,
                3.409107585620006
            ],
            [
                -3.5634747161109153,
                -2.0921855467401103,
                -0.6609052337322091
            ],
            [
                1.7547224687896241,
                5.216627533308984,
                -1.8996790100604983
            ],
            [
                4.229860397096723,
                -2.32204601447067,
                5.697982895581153
            ],
            [
                -2.3601250431160827,
                -1.2299726612614468,
                -0.23004304618358565
            ],
            [
                -9.864802622635723,
                0.40372918047649375,
                -2.9070220033571195
            ]
        ],
        [
            [
                -6.1910968971168145,
                5.983999871930247,
                -10.358316393971638
            ],
            [
                2.1301419023754544,
                -0.35241705380778254,
                -9.154464271754756
            ],
            [
                0.9151376558889399,
                -5.832678236011308,
                13.992469786183126
            ],
            [
                -14.464564596286724,
                1.4137982881123612,
                4.883244727598099
            ],
            [
                5.5332868095123295,
                6.134626839582725,
                7.783437924531731
            ],
            [
                3.6435019358769996,
                1.1057562567753894,
                3.2395515529696497
            ],
            [
                -6.093303516760215,
                -6.995940422465668,
                -3.5598138559081343
            ],
            [
                9.265151444758295,
                -8.430939005595853,
                0.12696573064763814
            ]
        ],
        [
            [
                -12.099742526616845,
                -2.8330374899818014,
                1.2128138594810765
            ],
            [
                -3.561944827069638,
                -0.3278768272671149,
                2.0985453290323006
            ],
            [
                -3.182719699487811,
                -7.296961960244331,
                5.320648548515073
            ],
            [
                -0.10305628603755006,
                11.870323983836187,
                -2.144809389367505
            ],
            [
                -0.9030908344742689,
                -13.670118303179585,
                2.5680273017822848
            ],
            [
                10.251166263204047,
                -10.828785887689452,
                8.439464827673227
            ],
            [
                10.757795592229838,
                4.686021853018852,
                2.3134637236947135
            ],
            [
                1.828837071722333,
                -7.29702661765995,
                16.570166975063753
            ]
        ]
    ]
}