{
    "feature_map": "z_featuremap",
    "ansatz": "layer",
    "learning_rate": 0.01,
    "num_layers": 4,
    "perm_mode": "random",
    "loss": "cross_entropy_loss",
    "circular": true,
    "num_qubits": 4,
    "name": "data_reuploading",
    "bias": 0.0,
    "loaded": false,
    "weights": [
        [
            [
                -2.2789954560504024,
                0.2284179704039545,
                4.2807181924966775
            ],
            [
                -0.24601180853052365,
                4.645236337113787,
                3.2380479925744696
            ],
            [
                3.540422129737046,
                -3.4139916560908254,
                -14.557102826157262
            ],
            [
                3.538942488836293,
                4.469187816931537,
                2.8054275599753273
            ],
            [
                2.8374053100569143,
                -0.8244023860075503,
                -11.393381987939724
            ],
            [
                -8.34090246471613,
                -4.399515477910693,
                -3.521779007786883
            ],
            [
                -8.954339358389678,
                2.2347451943372194,
                -9.445243978117782
            ],
            [
                -8.028874719362474,
                -1.7971663063313807,
                -7.093484168479836
            ]
        ],
        [
            [
                -4.916352986662504,
                -3.792120504116371,
                4.072084776014659
            ],
            [
                -2.040676178795494,
                -5.153437950808374,
                -1.4285960085658476
            ],
            [
                12.557319185259253,
                3.7301909281103223,
                3.409107585620006
            ],
            [
                -3.3268573524994904,
                -2.369348676517399,
                -0.6609052337322091
            ],
            [
                1.7547224687896241,
                5.216627533308984,
                -1.8996790100604983
            ],
            [
                4.229860397096723,
                -2.32204601447067,
                5.697982895581153
            ],
            [
                -2.3601250431160827,
                -1.2299726612614468,
                -0.23004304618358565
            ],
            [
                -9.864802622635723,
                0.40372918047649375,
                -2.9070220033571195
            ]
        ],
        [
            [
                -6.145598181739395,
                5.675730462262751,
                -10.358316393971638
            ],
            [
                2.6463562164144165,
                -0.046500223886033885,
                -9.154464271754756
            ],
            [
                0.7190852127476597,
                -5.379925713141905,
                13.992469786183126
            ],
            [
                -14.096958907567398,
                1.0297256970856818,
                4.883244727598099
            ],
            [
                5.5332868095123295,
                6.134626839582725,
                7.783437924531731
            ],
            [
                3.6435019358769996,
                1.1057562567753894,
                3.2395515529696497
            ],
            [
                -6.093303516760215,
                -6.995940422465668,
                -3.5598138559081343
            ],
            [
                9.265151444758295,
                -8.430939005595853,
                0.12696573064763814
            ]
        ],
        [
            [
                -12.049562259078419,
                -2.8996481212936507,
                1.2128138594810765
            ],
            [
                -3.450827111445347,
                -0.31985070540605215,
                2.0985453290323006
            ],
            [
                -3.438877322427513,
                -7.239034642731148,
                5.320648548515073
            ],
            [
                -0.2550654425535254,
                11.869502569469585,
                -2.144809389367505
            ],
            [
                -0.9030908344742689,
                -13.670118303179585,
                2.5680273017822848
            ],
            [
                10.251166263204047,
                -10.828785887689452,
                8.439464827673227
            ],
            [
                10.757795592229838,
                4.686021853018852,
                2.3134637236947135
            ],
            [
                1.828837071722333,
                -7.29702661765995,
                16.570166975063753
            ]
        ]
    ]
}