{
    "feature_map": "z_featuremap",
    "ansatz": "layer",
    "learning_rate": 0.02,
    "num_layers": 3,
    "perm_mode": "random",
    "loss": "cross_entropy_loss",
    "circular": true,
    "num_qubits": 4,
    "name": "layers=5,lr=0.02,no_datareup",
    "loaded": false,
    "weights": [
        [
            [
                -2.6882270156017314,
                2.1843801639709635,
                -1.2545184828709524
            ],
            [
                -4.6441112916725915,
                -7.3374891619866185,
                -1.177358224707272
            ],
            [
                -0.6857861369311754,
                -8.761307911384787,
                12.96733711792149
            ],
            [
                7.979133720613488,
                14.750524506026,
                2.751442657163854
            ],
            [
                2.4901428670404107,
                -1.8948100728818331,
                -2.822328541869852
            ],
            [
                8.357463593003883,
                13.007675924093162,
                -5.451452570530685
            ],
            [
                -4.081551463163019,
                -4.277982628357438,
                -4.790998837552919
            ],
            [
                5.294908570750023,
                8.664327851129341,
                -9.399764956919752
            ]
        ],
        [
            [
                1.9474592857987352,
                -2.7813550218981695,
                0.5794310833611119
            ],
            [
                -9.785632449076623,
                3.311860226938164,
                5.45834402859726
            ],
            [
                -1.8910327197316177,
                -4.059851093425328,
                4.689764606529453
            ],
            [
                7.574385833605832,
                -1.7332616179194986,
                -5.701281100084893
            ],
            [
                -3.6983698363184883,
                -0.5480521231635889,
                -2.4737650121405235
            ],
            [
                -15.875011659234366,
                6.752349594465086,
                18.072935709363282
            ],
            [
                -2.1381155525107802,
                -1.3887144094772081,
                12.938506218491547
            ],
            [
                -4.289179760421897,
                -7.7061363312677855,
                -1.6886405899827506
            ]
        ],
        [
            [
                -15.795269820616578,
                5.4912767688290405,
                2.75363645228719
            ],
            [
                -2.860353145828747,
                -0.592990206221491,
                1.4984210497462607
            ],
            [
                2.847470261493266,
                3.6444966126062486,
                3.0680358586356227
            ],
            [
                1.1211550122725493,
                -0.5378575258677903,
                10.048173401002988
            ],
            [
                -0.5636306451132934,
                -17.548147016535673,
                7.642246532741983
            ],
            [
                1.0137678180448333,
                -4.8644069134096775,
                -5.217938430519412
            ],
            [
                0.7138847322090579,
                -2.7010679091068317,
                -5.896587576707635
            ],
            [
                3.2145032622605068,
                -1.7324020760877918,
                -3.098031256247292
            ]
        ]
    ]
}