{
    "feature_map": "z_featuremap",
    "ansatz": "layer",
    "learning_rate": 0.02,
    "num_layers": 3,
    "perm_mode": "random",
    "loss": "cross_entropy_loss",
    "circular": true,
    "num_qubits": 4,
    "name": "layers=5,lr=0.02,no_datareup",
    "loaded": false,
    "weights": [
        [
            [
                -3.5834036960678723,
                7.790936372031021,
                -9.068769719893664
            ],
            [
                -5.132050342880639,
                -7.074786713113685,
                6.537810939683911
            ],
            [
                -3.085211783362559,
                12.401067036896986,
                8.36549427969895
            ],
            [
                -3.225668440971408,
                -4.145672799070063,
                0.7019510182461784
            ],
            [
                7.16009179467545,
                7.041092326199236,
                0.920796809529997
            ],
            [
                6.963874944956528,
                14.562308778083674,
                4.69273330053299
            ],
            [
                4.131428647840155,
                -6.608850950276344,
                8.772485877598324
            ],
            [
                3.6937415656233186,
                -2.572538635001383,
                -2.2724842674746277
            ]
        ],
        [
            [
                -4.451705742913367,
                -6.333828483440237,
                4.538155355741095
            ],
            [
                -4.95275731076948,
                5.173214782471376,
                -3.25781065113777
            ],
            [
                1.5958087598531163,
                -5.805044709602493,
                2.1476659673356293
            ],
            [
                6.066423921093115,
                -0.8916176248627274,
                -0.29362904777637927
            ],
            [
                13.045117908957467,
                8.579446104879267,
                -2.192253675049399
            ],
            [
                -8.190783000194584,
                -11.05160959505447,
                -8.949689397527502
            ],
            [
                -6.398129237039629,
                -8.165828360236823,
                -13.027115665948125
            ],
            [
                5.3604366362512135,
                3.119322395214189,
                -4.743487823260257
            ]
        ],
        [
            [
                2.7671317775701603,
                5.532747587342378,
                -0.8152585518311294
            ],
            [
                -0.893594451894969,
                5.929837193131031,
                -0.9361561116478734
            ],
            [
                -0.5353518060532348,
                -3.2284696583976595,
                -6.026647949378228
            ],
            [
                2.2326256605617982,
                -13.547920915935798,
                1.7457223984843913
            ],
            [
                -4.2194046426352765,
                1.5253451217243053,
                0.7082541295212623
            ],
            [
                5.644805880757843,
                -3.52960566810725,
                2.549914825023509
            ],
            [
                -13.861250818161276,
                -0.7960463810771125,
                -6.240489951490931
            ],
            [
                7.276644365714783,
                -1.237639595553053,
                -3.2789539155199035
            ]
        ]
    ]
}