{
    "feature_map": "z_featuremap",
    "ansatz": "layer",
    "learning_rate": 0.02,
    "num_layers": 3,
    "perm_mode": "random",
    "loss": "cross_entropy_loss",
    "circular": true,
    "num_qubits": 4,
    "name": "layers=5,lr=0.02,no_datareup",
    "loaded": false,
    "weights": [
        [
            [
                -2.4518796275196353,
                2.413237441117437,
                -1.2545184828709524
            ],
            [
                -4.4415803439787584,
                -6.712108896976838,
                -1.177358224707272
            ],
            [
                -0.5328482861122615,
                -9.010630238561639,
                12.96733711792149
            ],
            [
                8.05365869334197,
                14.582247674353125,
                2.751442657163854
            ],
            [
                2.4901428670404107,
                -1.8948100728818331,
                -2.822328541869852
            ],
            [
                8.357463593003883,
                13.007675924093162,
                -5.451452570530685
            ],
            [
                -4.081551463163019,
                -4.277982628357438,
                -4.790998837552919
            ],
            [
                5.294908570750023,
                8.664327851129341,
                -9.399764956919752
            ]
        ],
        [
            [
                2.2710977757695,
                -2.5506071430188273,
                0.5794310833611119
            ],
            [
                -9.937026524787278,
                3.170404370698148,
                5.45834402859726
            ],
            [
                -1.8748072371182778,
                -4.225496103585864,
                4.689764606529453
            ],
            [
                7.019116822725764,
                -1.5190786468301454,
                -5.701281100084893
            ],
            [
                -3.6983698363184883,
                -0.5480521231635889,
                -2.4737650121405235
            ],
            [
                -15.875011659234366,
                6.752349594465086,
                18.072935709363282
            ],
            [
                -2.1381155525107802,
                -1.3887144094772081,
                12.938506218491547
            ],
            [
                -4.289179760421897,
                -7.7061363312677855,
                -1.6886405899827506
            ]
        ],
        [
            [
                -15.711376675767886,
                5.836899561529452,
                2.75363645228719
            ],
            [
                -2.9058450005029024,
                -0.5399991499503938,
                1.4984210497462607
            ],
            [
                2.868006072015152,
                3.608019639522573,
                3.0680358586356227
            ],
            [
                1.1597061783392801,
                -0.3317600625919489,
                10.048173401002988
            ],
            [
                -0.5636306451132934,
                -17.548147016535673,
                7.642246532741983
            ],
            [
                1.0137678180448333,
                -4.8644069134096775,
                -5.217938430519412
            ],
            [
                0.7138847322090579,
                -2.7010679091068317,
                -5.896587576707635
            ],
            [
                3.2145032622605068,
                -1.7324020760877918,
                -3.098031256247292
            ]
        ]
    ]
}