{
    "feature_map": "z_featuremap",
    "ansatz": "layer",
    "learning_rate": 0.02,
    "num_layers": 3,
    "perm_mode": "random",
    "loss": "cross_entropy_loss",
    "circular": true,
    "num_qubits": 4,
    "name": "layers=5,lr=0.02,no_datareup",
    "loaded": false,
    "weights": [
        [
            [
                -2.364757562996989,
                1.6491353453094824,
                -1.2545184828709524
            ],
            [
                -4.6137854133623195,
                -7.9327029218382465,
                -1.177358224707272
            ],
            [
                -0.3792962173721896,
                -8.144445379666374,
                12.96733711792149
            ],
            [
                8.335561331787394,
                15.212755535382401,
                2.751442657163854
            ],
            [
                2.4901428670404107,
                -1.8948100728818331,
                -2.822328541869852
            ],
            [
                8.357463593003883,
                13.007675924093162,
                -5.451452570530685
            ],
            [
                -4.081551463163019,
                -4.277982628357438,
                -4.790998837552919
            ],
            [
                5.294908570750023,
                8.664327851129341,
                -9.399764956919752
            ]
        ],
        [
            [
                1.2804585293055388,
                -2.690933078080666,
                0.5794310833611119
            ],
            [
                -10.116449732573248,
                2.8813622454818635,
                5.45834402859726
            ],
            [
                -1.8999993494552143,
                -3.4277299776401153,
                4.689764606529453
            ],
            [
                8.189827140379936,
                -2.295144757089743,
                -5.701281100084893
            ],
            [
                -3.6983698363184883,
                -0.5480521231635889,
                -2.4737650121405235
            ],
            [
                -15.875011659234366,
                6.752349594465086,
                18.072935709363282
            ],
            [
                -2.1381155525107802,
                -1.3887144094772081,
                12.938506218491547
            ],
            [
                -4.289179760421897,
                -7.7061363312677855,
                -1.6886405899827506
            ]
        ],
        [
            [
                -15.93962285575865,
                5.352388852181039,
                2.75363645228719
            ],
            [
                -2.5073500904512382,
                -0.6456214416271288,
                1.4984210497462607
            ],
            [
                2.747875695632257,
                3.6537317574359793,
                3.0680358586356227
            ],
            [
                1.5231094185001006,
                -0.2866248228732606,
                10.048173401002988
            ],
            [
                -0.5636306451132934,
                -17.548147016535673,
                7.642246532741983
            ],
            [
                1.0137678180448333,
                -4.8644069134096775,
                -5.217938430519412
            ],
            [
                0.7138847322090579,
                -2.7010679091068317,
                -5.896587576707635
            ],
            [
                3.2145032622605068,
                -1.7324020760877918,
                -3.098031256247292
            ]
        ]
    ]
}