{
    "feature_map": "z_featuremap",
    "ansatz": "layer",
    "learning_rate": 0.02,
    "num_layers": 3,
    "perm_mode": "random",
    "loss": "cross_entropy_loss",
    "circular": true,
    "num_qubits": 4,
    "name": "layers=5,lr=0.02,no_datareup",
    "loaded": false,
    "weights": [
        [
            [
                -3.9144321135772375,
                7.568998230230521,
                -9.068769719893664
            ],
            [
                -5.241647776330395,
                -7.558625714553789,
                6.537810939683911
            ],
            [
                -2.3639282927887706,
                12.647654687034857,
                8.36549427969895
            ],
            [
                -3.2270778273738463,
                -3.9958646841055225,
                0.7019510182461784
            ],
            [
                7.16009179467545,
                7.041092326199236,
                0.920796809529997
            ],
            [
                6.963874944956528,
                14.562308778083674,
                4.69273330053299
            ],
            [
                4.131428647840155,
                -6.608850950276344,
                8.772485877598324
            ],
            [
                3.6937415656233186,
                -2.572538635001383,
                -2.2724842674746277
            ]
        ],
        [
            [
                -4.531937213870067,
                -6.078840050867543,
                4.538155355741095
            ],
            [
                -5.1633880607346985,
                4.9056815004328405,
                -3.25781065113777
            ],
            [
                1.3558374417490129,
                -5.9283763612542355,
                2.1476659673356293
            ],
            [
                6.245269740546305,
                -1.3962494880095295,
                -0.29362904777637927
            ],
            [
                13.045117908957467,
                8.579446104879267,
                -2.192253675049399
            ],
            [
                -8.190783000194584,
                -11.05160959505447,
                -8.949689397527502
            ],
            [
                -6.398129237039629,
                -8.165828360236823,
                -13.027115665948125
            ],
            [
                5.3604366362512135,
                3.119322395214189,
                -4.743487823260257
            ]
        ],
        [
            [
                2.917989925619589,
                5.2821303241409465,
                -0.8152585518311294
            ],
            [
                -0.42747191082734676,
                5.940959778953114,
                -0.9361561116478734
            ],
            [
                -0.1358391658047824,
                -2.9113006261691226,
                -6.026647949378228
            ],
            [
                1.6107387165106095,
                -13.36008399435024,
                1.7457223984843913
            ],
            [
                -4.2194046426352765,
                1.5253451217243053,
                0.7082541295212623
            ],
            [
                5.644805880757843,
                -3.52960566810725,
                2.549914825023509
            ],
            [
                -13.861250818161276,
                -0.7960463810771125,
                -6.240489951490931
            ],
            [
                7.276644365714783,
                -1.237639595553053,
                -3.2789539155199035
            ]
        ]
    ]
}