{
    "feature_map": "z_featuremap",
    "ansatz": "layer",
    "learning_rate": 0.01,
    "num_layers": 4,
    "perm_mode": "random",
    "loss": "cross_entropy_loss",
    "circular": true,
    "num_qubits": 5,
    "bias": 0.0,
    "name": "with_bias",
    "loaded": false,
    "weights": [
        [
            [
                -1.809783082283178,
                3.2425088579462797,
                -3.4419178333216887
            ],
            [
                3.5759690861447186,
                -7.246602117786881,
                6.4477122425330995
            ],
            [
                -3.306125732017959,
                12.188728964954736,
                -2.4765715279569624
            ],
            [
                -0.14886906605527148,
                -11.961779166406274,
                -11.368591085583768
            ],
            [
                -2.6730683018519596,
                4.6321599274097,
                1.6772290236307703
            ],
            [
                -2.0035252641409325,
                -6.816121219597692,
                7.099428928544208
            ],
            [
                7.2222131703240615,
                -12.040110072643985,
                7.007823338890384
            ],
            [
                8.71287366114486,
                9.249407315415388,
                -1.2457950648005958
            ],
            [
                -6.3525395642247515,
                -11.11648041737932,
                6.9380711448782035
            ],
            [
                -3.9646921450268797,
                0.2026623093895944,
                0.05405031795949775
            ]
        ],
        [
            [
                -7.793188874980121,
                -6.35729346351894,
                -7.332308384916305
            ],
            [
                4.699313559309394,
                -9.530809685631413,
                -7.421559044557952
            ],
            [
                -1.6163211219282485,
                4.774168002384591,
                -3.7824872522698376
            ],
            [
                -14.058870358886788,
                -10.069948301114243,
                -7.295747007403452
            ],
            [
                1.7302184088726482,
                -1.6986560696952646,
                14.304941592863253
            ],
            [
                4.962431252627528,
                2.907724652534128,
                1.186695578811374
            ],
            [
                -9.497615032334442,
                -5.240377541739931,
                1.9760546348421468
            ],
            [
                2.69979283404123,
                -9.289600877958947,
                6.784876132157802
            ],
            [
                2.505598042896529,
                4.348915109145922,
                -2.203581735736425
            ],
            [
                2.9773063694727724,
                1.9427515549748717,
                5.289160394793235
            ]
        ],
        [
            [
                5.2429245436401635,
                2.079598372501646,
                7.034405506174582
            ],
            [
                5.687641481394967,
                -5.739376850621102,
                9.419027073621608
            ],
            [
                -9.989071569887185,
                -14.45236406608217,
                2.856342196064787
            ],
            [
                -1.9139202346688986,
                -0.26049693078737957,
                -5.935579886354048
            ],
            [
                11.014985331861006,
                9.396718029049826,
                -3.5266616604383376
            ],
            [
                -2.7427877638610654,
                0.8456363951347504,
                3.1302429955525573
            ],
            [
                5.733787628554929,
                4.773314770010418,
                -2.2270698943370277
            ],
            [
                6.745714083332413,
                -1.324660027752731,
                -5.4640240154867845
            ],
            [
                -15.099116919373317,
                -6.114651017994392,
                -3.117068273473339
            ],
            [
                -0.730903194737305,
                14.206857283966798,
                0.10204316290606161
            ]
        ],
        [
            [
                -1.292800044019671,
                2.7816543497656085,
                -4.82393279318864
            ],
            [
                -11.84525610856877,
                0.8541760140487039,
                6.5436610351128515
            ],
            [
                -8.396440824258683,
                2.09597876658493,
                12.62942702474405
            ],
            [
                6.448543010934399,
                -2.2799715164830627,
                4.005632398356097
            ],
            [
                4.689253142674223,
                1.3980028069627266,
                -13.654879416691948
            ],
            [
                5.498994262126502,
                -0.9656572412303827,
                4.367961536700663
            ],
            [
                9.657380214540487,
                -0.9503811065341098,
                -4.828125050835784
            ],
            [
                -2.0349703605169815,
                -6.858039644188744,
                0.9835619955261129
            ],
            [
                -7.167109943943983,
                -8.791806366613786,
                4.2944001255894975
            ],
            [
                5.356138889723066,
                6.188709085512991,
                -5.501470931159431
            ]
        ]
    ]
}